svm_type c_svc
kernel_type rbf
gamma 4096.0
nr_class 3
total_sv 68
rho -0.27910203206855283 -0.41188715044772317 -0.19909787848679988
label 2 1 3
nr_sv 24 24 20
SV
0.7211683474385446 0.5885481013831287 0:0.3959731459617615 1:0.5 2:0.5 3:0.7163461446762085 4:0.47999998927116394 5:0.5 6:0.11428571492433548 
0.7206467083864752 0.5877924275823619 0:0.45945945382118225 1:0.4957983195781708 2:0.5042017102241516 3:0.6851851940155029 4:0.12962962687015533 5:0.30000001192092896 6:0.1830769181251526 
0.720644863854266 0.5877969102825917 0:0.3606557250022888 1:0.5 2:0.5 3:0.7349397540092468 4:0.30434781312942505 5:0.2083333283662796 6:0.10179640352725983 
0.7211947888947098 0.5969933679114243 0:0.3631123900413513 1:0.4878048896789551 2:0.5121951103210449 3:0.7336152195930481 4:0.1538461595773697 5:0.2857142984867096 6:0.08613445609807968 
0.720644979926929 0.5879070728393011 0:0.24497991800308228 1:0.4761904776096344 2:0.523809552192688 3:0.8032258152961731 4:0.2291666716337204 5:0.6666666865348816 6:0.06730769574642181 
0.7211683474385446 0.5885452154783166 0:0.48691099882125854 1:0.47826087474823 2:0.52173912525177 3:0.672535240650177 4:0.3571428656578064 5:0.24242424964904785 6:0.08041957765817642 
0.7206899432982646 0.5879070728393011 0:0.3405238687992096 1:0.5 2:0.5 3:0.745976984500885 4:0.1339285671710968 5:0.17241379618644714 6:0.09403669834136963 
0.7206540815383506 0.5877970063329664 0:0.5 1:0.4893617033958435 2:0.5106382966041565 3:0.6666666865348816 4:0.2222222238779068 5:0.27586206793785095 6:0.07966101914644241 
0.7210916529412111 0.5877924244038164 0:0.30666667222976685 1:0.4545454680919647 2:0.5454545617103577 3:0.7653061151504517 4:0.27272728085517883 5:0.3636363744735718 6:0.10999999940395355 
0.7209405873473449 0.587792427084782 0:0.45578232407569885 1:0.4883720874786377 2:0.5116279125213623 3:0.6869158744812012 4:0.1805555522441864 5:0.30000001192092896 6:0.10000000149011612 
0.7206540824485923 0.589068359313017 0:0.40789473056793213 1:0.4897959232330322 2:0.5102040767669678 3:0.7102803587913513 4:0.30000001192092896 5:0.38461539149284363 6:0.11395348608493805 
0.7209241533127368 0.5877970026406312 0:0.351898729801178 1:0.5 2:0.5 3:0.7397003769874573 4:0.16346153616905212 5:0.3529411852359772 6:0.08582089841365814 
0.7211051248232381 0.5878180812520135 0:0.30023640394210815 1:0.4864864945411682 2:0.5135135054588318 3:0.7690908908843994 4:0.16296295821666718 5:0.2916666567325592 6:0.06702898442745209 
0.7212068369668264 0.5885481013831287 0:0.6000000238418579 1:0.4838709533214569 2:0.5161290168762207 3:0.625 4:0.30000001192092896 5:0.22727273404598236 6:0.13247863948345184 
0.720644979926929 0.5885258420970924 0:0.4206896424293518 1:0.47058823704719543 2:0.529411792755127 3:0.7038834691047668 4:0.3333333432674408 5:0.46666666865348816 6:0.08173076808452606 
0.7209405884064256 0.5877924275637868 0:0.2818371653556824 1:0.4909090995788574 2:0.5090909004211426 3:0.7801302671432495 4:0.1164383590221405 5:0.2380952388048172 6:0.0892857164144516 
0.7206449935204808 0.5878359151165132 0:0.24827586114406586 1:0.48275861144065857 2:0.517241358757019 3:0.8011049628257751 4:0.17757008969783783 5:0.4166666567325592 6:0.07967033237218857 
0.7206540777220725 0.5877924239687712 0:0.40446650981903076 1:0.4893617033958435 2:0.5106382966041565 3:0.7120141386985779 4:0.13445378839969635 5:0.3499999940395355 6:0.0827464759349823 
0.8950763993448116 0.5878063261176811 0:0.27463650703430176 1:0.5 2:0.5 3:0.7845373749732971 4:0.18000000715255737 5:0.2777777910232544 6:0.08585858345031738 
0.7206467023708178 0.5885214656711211 0:0.2816635072231293 1:0.4888888895511627 2:0.5111111402511597 3:0.780236005783081 4:0.26744186878204346 5:0.27272728085517883 6:0.06617647409439087 
0.7206540822068811 0.5878359151165132 0:0.15107913315296173 1:0.5 2:0.5 3:0.8687499761581421 4:0.4035087823867798 5:0.4285714328289032 6:0.07407407462596893 
0.7204292118166036 0.5877970070003206 0:0.36305731534957886 1:0.47999998927116394 2:0.5199999809265137 3:0.7336448431015015 4:0.4000000059604645 5:0.3333333432674408 6:0.11574073880910873 
0.7210990180600236 0.5879069727267147 0:0.3222591280937195 1:0.5 2:0.5 3:0.7562814354896545 4:0.29411765933036804 5:0.25 6:0.095238097012043 
0.720654082158579 0.5879070740662431 0:0.2957746386528015 1:0.5 2:0.5 3:0.77173912525177 4:0.3888888955116272 5:0.3333333432674408 6:0.1071428582072258 
-0.5000000001166407 0.0 0:0.35256409645080566 1:0.4923076927661896 2:0.5076923370361328 3:0.7393364906311035 4:0.3181818127632141 5:0.4166666567325592 6:0.10220126062631607 
-0.5000000017892696 0.0 0:0.33980581164360046 1:0.49450549483299255 2:0.5054945349693298 3:0.7463768124580383 4:0.1034482792019844 5:0.1111111119389534 6:0.09400826692581177 
-0.5000000043148126 0.0 0:0.2868216931819916 1:0.4838709533214569 2:0.5161290168762207 3:0.7771084308624268 4:0.14035087823867798 5:0.3888888955116272 6:0.06199999898672104 
-0.4999397053949114 0.0 0:0.3624161183834076 1:0.5 2:0.5 3:0.7339901328086853 4:0.4736842215061188 5:0.260869562625885 6:0.0776699036359787 
-0.26074413867341545 0.0 0:0.4472527503967285 1:0.5 2:0.5 3:0.6909643411636353 4:0.16470588743686676 5:0.2142857164144516 6:0.09545454382896423 
-0.37498499195916 0.0 0:0.3232104182243347 1:0.4923076927661896 2:0.5076923370361328 3:0.7557377219200134 4:0.22413793206214905 5:0.2222222238779068 6:0.1062091514468193 
-0.2606061273741417 0.0 0:0.42625609040260315 1:0.5 2:0.5 3:0.7011363506317139 4:0.18518517911434174 5:0.2222222238779068 6:0.09297052025794983 
-0.49999995887191445 0.0 0:0.1034482792019844 1:0.47826087474823 2:0.52173912525177 3:0.90625 4:0.2719298303127289 5:0.5 6:0.0550239235162735 
-0.5000103485239067 0.0 0:0.36802029609680176 1:0.5 2:0.5 3:0.730983316898346 4:0.20000000298023224 5:0.27272728085517883 6:0.08856088668107986 
-1.0 0.8012477201869886 0:0.30310261249542236 1:0.4838709533214569 2:0.5161290168762207 3:0.767399251461029 4:0.18840579688549042 5:0.190476194024086 6:0.05656934157013893 
-1.0 0.8008046482341031 0:0.26502731442451477 1:0.49295774102211 2:0.5070422291755676 3:0.7904967665672302 4:0.14598539471626282 5:0.3125 6:0.07650861889123917 
-1.0 0.8007977980745133 0:0.3012048304080963 1:0.4952380955219269 2:0.5047619342803955 3:0.7685185074806213 4:0.1504424810409546 5:0.1785714328289032 6:0.0882352963089943 
-1.0 0.8007971865509015 0:0.17468354105949402 1:0.49056604504585266 2:0.5094339847564697 3:0.8512930870056152 4:0.10740740597248077 5:0.38461539149284363 6:0.05698924884200096 
-1.0 0.8008052112895059 0:0.281862735748291 1:0.49450549483299255 2:0.5054945349693298 3:0.7801147103309631 4:0.18888889253139496 5:0.2631579041481018 6:0.08683206140995026 
-1.0 0.8014197912717118 0:0.341085284948349 1:0.5 2:0.5 3:0.7456647157669067 4:0.203125 5:0.4000000059604645 6:0.10662823915481567 
-0.7787936743068768 0.8008002223028982 0:0.35256409645080566 1:0.4923076927661896 2:0.5076923370361328 3:0.7393364906311035 4:0.3181818127632141 5:0.4166666567325592 6:0.10220126062631607 
-0.7787931139106326 0.801419824513408 0:0.33980581164360046 1:0.49450549483299255 2:0.5054945349693298 3:0.7463768124580383 4:0.1034482792019844 5:0.1111111119389534 6:0.09400826692581177 
-0.7788316798477791 0.8007619361651472 0:0.2868216931819916 1:0.4838709533214569 2:0.5161290168762207 3:0.7771084308624268 4:0.14035087823867798 5:0.3888888955116272 6:0.06199999898672104 
-0.7794062123982075 0.8008049146394831 0:0.3624161183834076 1:0.5 2:0.5 3:0.7339901328086853 4:0.4736842215061188 5:0.260869562625885 6:0.0776699036359787 
-1.0 0.7893221373328159 0:0.4472527503967285 1:0.5 2:0.5 3:0.6909643411636353 4:0.16470588743686676 5:0.2142857164144516 6:0.09545454382896423 
-0.904370036856421 0.8007828259336979 0:0.3232104182243347 1:0.4923076927661896 2:0.5076923370361328 3:0.7557377219200134 4:0.22413793206214905 5:0.2222222238779068 6:0.1062091514468193 
-1.0 0.7893063556403677 0:0.42625609040260315 1:0.5 2:0.5 3:0.7011363506317139 4:0.18518517911434174 5:0.2222222238779068 6:0.09297052025794983 
-0.7789008986954248 0.8007837352948519 0:0.1034482792019844 1:0.47826087474823 2:0.52173912525177 3:0.90625 4:0.2719298303127289 5:0.5 6:0.0550239235162735 
-0.7787977411161442 0.8019210398192256 0:0.36802029609680176 1:0.5 2:0.5 3:0.730983316898346 4:0.20000000298023224 5:0.27272728085517883 6:0.08856088668107986 
-0.500000000373224 -0.24999892963965964 0:0.2600732743740082 1:0.49056604504585266 2:0.5094339847564697 3:0.7936046719551086 4:0.3333333432674408 5:0.2777777910232544 6:0.07681159675121307 
-0.5030017268104392 -0.5000000056424193 0:0.3333333432674408 1:0.4871794879436493 2:0.5128205418586731 3:0.75 4:0.14953270554542542 5:0.2777777910232544 6:0.08986175060272217 
-0.5000241622051097 -0.5004699082790962 0:0.39291736483573914 1:0.5 2:0.5 3:0.7179176807403564 4:0.17241379618644714 5:0.260869562625885 6:0.0917874425649643 
-0.41403821203436064 -0.21494689069933126 0:0.25249168276786804 1:0.48571428656578064 2:0.5142857432365417 3:0.7984085083007812 4:0.2711864411830902 5:0.4444444477558136 6:0.09210526198148727 
-0.5001920674076494 -0.24999999931620379 0:0.4000000059604645 1:0.4736842215061188 2:0.5263158082962036 3:0.7142857313156128 4:0.2777777910232544 5:0.4000000059604645 6:0.08962263911962509 
-0.4371067608426372 -0.2012234444550995 0:0.1925133615732193 1:0.5 2:0.5 3:0.8385650515556335 4:0.27272728085517883 5:0.4285714328289032 6:0.08849557489156723 
-0.5 -0.24999892966784026 0:0.25641027092933655 1:0.5 2:0.5 3:0.795918345451355 4:0.5652173757553101 5:0.5555555820465088 6:0.03999999910593033 
-0.4999069174508719 -0.24457411254167555 0:0.38738739490509033 1:0.5 2:0.5 3:0.7207792401313782 4:0.3333333432674408 5:0.2857142984867096 6:0.0903225839138031 
-0.5000000000109414 -0.4999978602736523 0:0.3580246865749359 1:0.4736842215061188 2:0.5263158082962036 3:0.7363636493682861 4:0.3199999928474426 5:0.3529411852359772 6:0.0855855867266655 
-0.5 -0.2499999970795509 0:0.5409836173057556 1:0.48148149251937866 2:0.5185185074806213 3:0.6489361524581909 4:0.4482758641242981 5:0.3684210479259491 6:0.09507042169570923 
-0.9114785305432334 -0.9487464683081565 0:0.2600732743740082 1:0.49056604504585266 2:0.5094339847564697 3:0.7936046719551086 4:0.3333333432674408 5:0.2777777910232544 6:0.07681159675121307 
-0.912036487294029 -0.699217177306064 0:0.3333333432674408 1:0.4871794879436493 2:0.5128205418586731 3:0.75 4:0.14953270554542542 5:0.2777777910232544 6:0.08986175060272217 
-0.9120884514263584 -0.6994787886332022 0:0.39291736483573914 1:0.5 2:0.5 3:0.7179176807403564 4:0.17241379618644714 5:0.260869562625885 6:0.0917874425649643 
-0.9974359458213014 -0.9842693739651124 0:0.25249168276786804 1:0.48571428656578064 2:0.5142857432365417 3:0.7984085083007812 4:0.2711864411830902 5:0.4444444477558136 6:0.09210526198148727 
-0.9121172016501392 -0.949202960499656 0:0.4000000059604645 1:0.4736842215061188 2:0.5263158082962036 3:0.7142857313156128 4:0.2777777910232544 5:0.4000000059604645 6:0.08962263911962509 
-0.974976957275622 -0.9979795152543913 0:0.1925133615732193 1:0.5 2:0.5 3:0.8385650515556335 4:0.27272728085517883 5:0.4285714328289032 6:0.08849557489156723 
-0.9121637999266652 -0.9485812790604479 0:0.25641027092933655 1:0.5 2:0.5 3:0.795918345451355 4:0.5652173757553101 5:0.5555555820465088 6:0.03999999910593033 
-0.9115716130267213 -0.9546547130504066 0:0.38738739490509033 1:0.5 2:0.5 3:0.7207792401313782 4:0.3333333432674408 5:0.2857142984867096 6:0.0903225839138031 
-0.9122075755944367 -0.6991969268227833 0:0.3580246865749359 1:0.4736842215061188 2:0.5263158082962036 3:0.7363636493682861 4:0.3199999928474426 5:0.3529411852359772 6:0.0855855867266655 
-0.9114785304777976 -0.9492380667548708 0:0.5409836173057556 1:0.48148149251937866 2:0.5185185074806213 3:0.6489361524581909 4:0.4482758641242981 5:0.3684210479259491 6:0.09507042169570923 
